const model = {"neuronCounts":[5,10,8],"classes":["car","fish","house","tree","bicycle","guitar","pencil","clock"],"network":{"levels":[{"weights":[[-1.2414475337443767,1.6598338973495375,1.4377765995214162,-2.5455626528383197,0.813086220909468,-0.022797045160113813,-0.18037780626024963,1.0456370673056725,0.12005885137058035,-1.4883108247420282],[0.34536429765266813,-1.0189173919407561,-0.7853009817308183,2.01008158270488,-2.629772521346397,0.8145630426343903,-2.0874356862687047,-1.000414620053226,-0.595944753749237,-0.9169212854786613],[2.0269343240220015,5.987438669750732,1.8856417181869458,1.468196710661083,1.1680693843896834,3.913443257705444,-3.4406026986755123,-6.655541738519932,5.533441828136926,5.395200874070873],[-1.7457848703964471,-1.8352874265741483,1.7235653693678787,1.4550378636212133,1.6339002381382224,1.0322885325175422,1.3532339696670637,2.0924474100625674,0.2453612214843156,-0.12251635627878285],[0.4098583715394981,1.2498619341933273,1.4398009180383275,-0.16953760271935248,-0.3652793991366465,1.9310062409426216,0.9123908419574903,0.9269995275000804,-5.3748506391865085,-1.530276840913585]],"biases":[0.4265813963190724,1.2214986154358962,-1.8091089380413605,-1.3030736962621687,-0.730431023284583,-0.6771245383009721,-0.24224386817010302,-1.4382404213259474,0.27196632407136023,0.15680151044737886],"inputs":[0.18,0.44794188861985473,0.0813202658847764,0.7407592880819288,0.23280371451521267],"outputs":[-0.6751349922615841,0.4822193340347689,-0.13679941127529305,0.2968827418710889,-0.5417846842176777,1.2161138916157175,-0.2747238741605832,-0.4735750001214618,-0.5929223304848751,-0.5300919824147724]},{"weights":[[-0.7999743666550343,-1.5692316484708526,-0.16573363302092936,-0.9188866356952796,-0.6507884815379902,0.9995677703129615,1.7806751662767424,0.13518216456082532],[0.948257992603072,1.7340352319954977,-0.6639153455107857,-1.7614295029768317,1.6251003794714038,1.843786931671023,0.045597614015591044,-3.2020248740073303],[5.679286809008015,-1.8940668821875155,-3.3379260653366547,-0.6557361327295202,-2.813195508078799,-0.4184086707509507,0.06469497573689421,5.818063937440504],[-1.2199731732119634,-1.5084733891074602,-0.5338220807531077,2.6988757147533495,-2.9414896944618856,-0.3682166021610041,-1.1125085651173714,6.0002757401032865],[3.5345573339713314,0.8745334857677813,-1.0061771456503064,-3.719758701635289,0.608557535841404,0.7864931009984353,-2.73020570091736,2.7858635666892475],[-0.3586504435623133,-0.8998363652405159,-0.3580179176113128,-0.06740336000356187,-0.2543443626842586,-1.3300955582130067,0.12078909091164805,4.499787080467893],[1.0506571674799081,1.2546346600534395,1.54817500835857,-1.456185116087215,3.474340841568542,-1.3609972536708703,-2.5346084342639488,0.027123083806289992],[0.5166443109295268,0.0470634461375603,0.5791035548467223,2.884754013129607,1.9591938762301015,-5.3097714749649985,-0.28679254989420017,0.7829786210167444],[1.653136285020547,0.7854701659380389,-2.5379622230062933,2.308412941721014,-1.4748141375982928,-2.2380327144819483,0.9249425149022579,1.970198346747562],[-0.08919040492332392,1.007999533640725,-1.398422284685242,-0.7286755471646945,-0.7336855806588203,-2.557814535609652,2.5964139864127547,1.240579319806659]],"biases":[-1.1581393646946354,0.8408541258472525,0.2964165742628419,-0.2619824888668726,-0.9862289156205456,-1.8998597337026966,-0.5272686100274413,1.2980897058605647],"inputs":[-0.6751349922615841,0.4822193340347689,-0.13679941127529305,0.2968827418710889,-0.5417846842176777,1.2161138916157175,-0.2747238741605832,-0.4735750001214618,-0.5929223304848751,-0.5300919824147724],"outputs":[-5.117233964701879,-0.3873836346644738,2.042578210081706,0.38474365977723257,-1.5095954548199297,1.7900001129652456,-1.5131566547295052,2.407084945891898]}]}};